{"layers":[{"out_depth":2,"out_sx":1,"out_sy":1,"layer_type":"input"},{"out_depth":20,"out_sx":1,"out_sy":1,"layer_type":"fc","num_inputs":2,"l1_decay_mul":0,"l2_decay_mul":1,"filters":[{"sx":1,"sy":1,"depth":2,"w":{"0":0.08246047384697361,"1":0.3733114781688582}},{"sx":1,"sy":1,"depth":2,"w":{"0":0.14920371676129962,"1":0.7015721838601322}},{"sx":1,"sy":1,"depth":2,"w":{"0":0.4820619579861435,"1":0.03698716462570259}},{"sx":1,"sy":1,"depth":2,"w":{"0":0.2741890373490689,"1":0.29164552481681544}},{"sx":1,"sy":1,"depth":2,"w":{"0":-0.09078665770025723,"1":-0.11644467849060183}},{"sx":1,"sy":1,"depth":2,"w":{"0":0.6613122378964779,"1":-0.7208352801575062}},{"sx":1,"sy":1,"depth":2,"w":{"0":0.2703435047751319,"1":0.15260380897660936}},{"sx":1,"sy":1,"depth":2,"w":{"0":-0.05365762829699782,"1":-0.4067313419956792}},{"sx":1,"sy":1,"depth":2,"w":{"0":0.9764973243436413,"1":-0.4687861537891138}},{"sx":1,"sy":1,"depth":2,"w":{"0":2.3319471512520416,"1":-0.25825615036335503}},{"sx":1,"sy":1,"depth":2,"w":{"0":1.7682586089227976,"1":1.5167662759849594}},{"sx":1,"sy":1,"depth":2,"w":{"0":0.0819435603747989,"1":0.11343675884391848}},{"sx":1,"sy":1,"depth":2,"w":{"0":0.008563732232104375,"1":-0.9404303180055471}},{"sx":1,"sy":1,"depth":2,"w":{"0":-0.17970279652794705,"1":-0.3318949143320023}},{"sx":1,"sy":1,"depth":2,"w":{"0":-0.6983190930352309,"1":1.2731893186845602}},{"sx":1,"sy":1,"depth":2,"w":{"0":-0.21879355511677392,"1":-0.19553975378155047}},{"sx":1,"sy":1,"depth":2,"w":{"0":0.17006031080761178,"1":0.3662775981894603}},{"sx":1,"sy":1,"depth":2,"w":{"0":-0.6414872366873356,"1":0.7209965938615214}},{"sx":1,"sy":1,"depth":2,"w":{"0":1.0038391284019912,"1":-0.279058026524968}},{"sx":1,"sy":1,"depth":2,"w":{"0":-0.151978905265312,"1":-0.10687217936704357}}],"biases":{"sx":1,"sy":1,"depth":20,"w":{"0":0.1,"1":0.1,"2":0.10446721503459162,"3":0.1,"4":0.10446096482509376,"5":0.09591460267548825,"6":0.0971433132859607,"7":0.09652210717973317,"8":0.09597220565048253,"9":0.10446038221184,"10":0.1,"11":0.1,"12":0.09553637207578689,"13":0.1044557178600799,"14":0.1,"15":0.09553245024018174,"16":0.1,"17":0.1,"18":0.10446366351597851,"19":0.10430658168996843}}},{"out_depth":20,"out_sx":1,"out_sy":1,"layer_type":"relu"},{"out_depth":20,"out_sx":1,"out_sy":1,"layer_type":"fc","num_inputs":20,"l1_decay_mul":0,"l2_decay_mul":1,"filters":[{"sx":1,"sy":1,"depth":20,"w":{"0":-0.696208371637826,"1":0.002505476529823595,"2":-0.20177321782100358,"3":0.30283527134699595,"4":-0.015652666863567557,"5":0.12726790583253317,"6":0.09802752828677788,"7":0.09414871422974806,"8":0.5120350347987874,"9":-0.518617985531292,"10":0.14314737359421326,"11":-0.32173889885077345,"12":0.028406626158920957,"13":0.16579702479207273,"14":0.05630899950706415,"15":0.17044378306043562,"16":0.43306706608250456,"17":-0.24001087857573114,"18":-0.18896552708504397,"19":-0.1698777341675809}},{"sx":1,"sy":1,"depth":20,"w":{"0":-0.23782737638433732,"1":-0.25690797009326993,"2":0.1890594075425461,"3":0.009852673221823694,"4":-0.24063182956683116,"5":-0.2068407612433957,"6":0.33771732613330885,"7":-0.3217104044970419,"8":0.11603108284252214,"9":-0.042398794305084836,"10":-0.09522368601750619,"11":0.12351096740742565,"12":0.012902516039857065,"13":0.2620185408975832,"14":0.20464022900318152,"15":-0.06798441389991695,"16":0.36792701178772985,"17":0.5425882723123057,"18":0.2835908392489891,"19":-0.103476049211695}},{"sx":1,"sy":1,"depth":20,"w":{"0":0.004424549909918885,"1":0.044577382988512465,"2":0.01720076109086875,"3":-0.05688960468150997,"4":-0.06339982675319182,"5":-0.02121740838304417,"6":-0.03990935829710842,"7":0.11389143211343003,"8":0.24238886534143414,"9":-0.5424546248662164,"10":0.12551951579789045,"11":-0.45240034580227334,"12":0.04896792124857904,"13":0.20672176800693842,"14":-0.12468373142987543,"15":0.03488985177345112,"16":-0.08067728091177677,"17":-0.10535103148164594,"18":-0.08903002056021923,"19":0.08280745305569516}},{"sx":1,"sy":1,"depth":20,"w":{"0":0.1757845307615967,"1":0.08095419082365479,"2":-0.2920406687772603,"3":0.029025900433220234,"4":-0.26936652361794877,"5":0.15703752411090793,"6":0.048648543575065685,"7":0.41564925557965465,"8":-0.3807309930883722,"9":0.2758169309500111,"10":-0.30113996919257685,"11":-0.08275230508033733,"12":0.1951119692426188,"13":-0.04877122373077602,"14":-0.6889151871826154,"15":0.10372033449448408,"16":0.39862104381770364,"17":0.09410065315374155,"18":-0.241467467156253,"19":0.34000613955411657}},{"sx":1,"sy":1,"depth":20,"w":{"0":0.1653939682666956,"1":0.00043530557873969113,"2":-0.14528744716717934,"3":0.20690450693135987,"4":-0.4289503471880531,"5":0.5621312460955914,"6":0.09162698636134026,"7":-0.07946473061420031,"8":-0.15579290840227905,"9":0.01608480049830253,"10":-0.13100561781479372,"11":-0.15790401124191109,"12":0.30608810372443973,"13":-0.11730290585477982,"14":0.11676647272221893,"15":0.11379129099242799,"16":0.2593126239050139,"17":0.01580003104432028,"18":-0.36117736983491905,"19":0.019856597183440367}},{"sx":1,"sy":1,"depth":20,"w":{"0":0.23816312080785956,"1":-0.07724440434439696,"2":0.24920213504224298,"3":-0.16656551569557707,"4":0.2025253405814286,"5":0.16682333123896337,"6":0.27491292175186455,"7":0.22164285511739196,"8":0.28008338072419997,"9":0.17616198635968688,"10":-0.31031739986188567,"11":-0.08052318390443423,"12":0.004416591998875032,"13":0.10089886827786682,"14":0.19148657694217905,"15":-0.18128459700369579,"16":0.011884505318212897,"17":-0.09058477873347144,"18":-0.5102143465892076,"19":0.03378065397327825}},{"sx":1,"sy":1,"depth":20,"w":{"0":-0.09431547060981062,"1":0.21671976656671266,"2":-0.05113362057805049,"3":0.45779923593367483,"4":0.02685380851957234,"5":-0.23435655184092108,"6":0.1452074806879922,"7":0.29330040664852197,"8":-0.1948627743052066,"9":0.3409666429472839,"10":-0.019146846339082334,"11":-0.40397119528146114,"12":0.3059322478979242,"13":0.20199403750572997,"14":-0.28050756127973403,"15":0.43521243311722224,"16":0.21472175096661306,"17":0.18373865214261795,"18":0.2649336139861501,"19":-0.17760517254737537}},{"sx":1,"sy":1,"depth":20,"w":{"0":0.30631174307974124,"1":0.006323699090456706,"2":-0.006908240655010813,"3":0.06587193425155263,"4":-0.25383091054420476,"5":-0.09049546872649494,"6":0.026965782393824526,"7":-0.10462552227279334,"8":0.5431584940574149,"9":-0.11819644144198449,"10":-0.018351381195311014,"11":0.16184214329760574,"12":-0.21608187973978635,"13":-0.0508008817877824,"14":0.2226083391652491,"15":0.12094937908071884,"16":0.06319721654559918,"17":0.43635773379783005,"18":0.03879711962362289,"19":-0.059115245383420036}},{"sx":1,"sy":1,"depth":20,"w":{"0":-0.2622430020626959,"1":-0.19430028319476525,"2":0.1435042925830004,"3":-0.25771570695173834,"4":-0.153052248749939,"5":-0.0912652976957426,"6":0.12514145117415387,"7":0.04152258025073171,"8":-0.07930661498380108,"9":0.2459806324896009,"10":0.012677751253053695,"11":0.3871127005200558,"12":-0.34356214030194154,"13":-0.02980767571686221,"14":0.000002352649078583193,"15":0.20588412980242374,"16":0.19139741184654116,"17":0.1343126750573133,"18":-0.0223797578928504,"19":-0.12951002285758753}},{"sx":1,"sy":1,"depth":20,"w":{"0":-0.24350938589013177,"1":-0.19223994909478664,"2":0.3727460870502301,"3":-0.1424733916813992,"4":0.05454400812779676,"5":-0.07291343434999235,"6":0.042953049476450594,"7":0.26400284970797994,"8":0.34970066089010127,"9":0.17595047262646463,"10":0.11410316480965932,"11":-0.026915619590936295,"12":-0.275573157346647,"13":0.20717559672963992,"14":0.09653157066701858,"15":0.08433135789983853,"16":0.2659360393463027,"17":-0.22814876008490076,"18":0.041326113901602325,"19":-0.32056249165205347}},{"sx":1,"sy":1,"depth":20,"w":{"0":0.09780262083705497,"1":0.13843449020316345,"2":0.20801439710698613,"3":-0.17377010131002066,"4":0.07265921027923936,"5":0.19370158505632884,"6":0.18792725335797067,"7":-0.07302845555914558,"8":-0.08764687568583546,"9":0.06647987194068593,"10":0.12131716602488646,"11":-0.04555945166512119,"12":0.24637749107452114,"13":0.011505295109608885,"14":0.040121910829723335,"15":-0.3799568420130089,"16":-0.039096245636453565,"17":0.17478767161256045,"18":0.034966804108691615,"19":-0.3549035176245008}},{"sx":1,"sy":1,"depth":20,"w":{"0":0.23311881609701926,"1":0.16174886794341217,"2":-0.06539041965384564,"3":-0.05482333588604759,"4":-0.33735656467319547,"5":0.1143462077212832,"6":-0.1318711671297535,"7":-0.14745856727721446,"8":-0.09445429941531731,"9":-0.6151066225525763,"10":0.46581824883486334,"11":0.06262443481071701,"12":0.2977971449660759,"13":0.06808802894558721,"14":-0.17131182533303077,"15":-0.21595556596321033,"16":0.07097787078071147,"17":0.31350119093403156,"18":0.11568908756366213,"19":-0.10680223525003349}},{"sx":1,"sy":1,"depth":20,"w":{"0":-0.005880102516863972,"1":0.343704966986501,"2":-0.3090442559091972,"3":-0.14994578622888657,"4":0.01370048805282937,"5":0.19720620881731504,"6":-0.29340514102746895,"7":-0.13485242100955278,"8":0.1750010208948727,"9":0.1327762242920969,"10":-0.14352372879223074,"11":0.10808977786509547,"12":-0.34801127311767327,"13":-0.10142677018703414,"14":0.002146193179667506,"15":-0.006734674311549792,"16":0.07585730797885178,"17":-0.36145969260032074,"18":0.17898381168567346,"19":-0.2974896018967277}},{"sx":1,"sy":1,"depth":20,"w":{"0":0.11045777264407987,"1":-0.00845472303582542,"2":0.21012281818124148,"3":0.11750447039399047,"4":0.010379971717660303,"5":-0.07369928086742554,"6":0.014929439804272535,"7":0.3346596907552987,"8":0.023489186783132037,"9":-0.388601243031705,"10":-0.011168406892847501,"11":0.2189912185017306,"12":0.029013210078381837,"13":0.22466457491189656,"14":0.12246961816160938,"15":-0.1044929902601651,"16":0.014863472917174807,"17":0.06918825127169931,"18":-0.44353044701842526,"19":-0.1091847866889244}},{"sx":1,"sy":1,"depth":20,"w":{"0":0.08596857076858584,"1":0.08989451797558151,"2":-0.015283049849720093,"3":0.07397438857361512,"4":0.12332420473490834,"5":-0.06018369020333638,"6":0.3247047612205792,"7":0.028236094226574616,"8":-0.08127295782441779,"9":-0.07034296779761146,"10":0.14672693311924614,"11":0.19348516460510454,"12":-0.2810086995704281,"13":0.3774999236150232,"14":0.034560548183496034,"15":-0.25675183262588314,"16":-0.04204957175252873,"17":-0.0194507847505836,"18":0.175912286158836,"19":0.0035942714304847832}},{"sx":1,"sy":1,"depth":20,"w":{"0":-0.13180634824887072,"1":-0.06766448390097761,"2":0.3035280187920632,"3":0.2557834640367551,"4":0.06713826387920216,"5":0.016353306921428442,"6":-0.06811773860584983,"7":0.056931315451578944,"8":0.05059726663637593,"9":0.1917548505305953,"10":-0.21340040500727442,"11":0.2748382498180196,"12":0.04289763534856648,"13":0.22386482063402147,"14":-0.08482599197592454,"15":-0.06711882135934691,"16":0.12406381550422849,"17":-0.22967425771554467,"18":0.22655636468427537,"19":0.11063325258737625}},{"sx":1,"sy":1,"depth":20,"w":{"0":0.1642578434464565,"1":0.3441781267112175,"2":0.0744196193166072,"3":-0.10432101381082422,"4":-0.0952855750498563,"5":0.0899984163672661,"6":0.006428751953490909,"7":-0.0780962594788798,"8":0.07657909132011768,"9":-0.1358308074732862,"10":-0.22271429736970466,"11":0.0706479235332504,"12":0.2891263104110718,"13":-0.18073273061460313,"14":0.2569279244875339,"15":0.03605697400636238,"16":0.1953058494462453,"17":0.3110080509452369,"18":-0.2708239477111391,"19":0.08096909134010775}},{"sx":1,"sy":1,"depth":20,"w":{"0":0.0731910573094548,"1":0.38619149153792265,"2":-0.07902460467207856,"3":-0.01255645780465269,"4":0.03157010748072808,"5":0.18074170790428495,"6":-0.009201689756697232,"7":0.24304996219513417,"8":0.26268512204158817,"9":0.054563346199026905,"10":0.2133461309592083,"11":0.14130881860296632,"12":-0.26897869288968307,"13":-0.482501346436966,"14":-0.09597723507073924,"15":0.18994415995533373,"16":0.00950787296993468,"17":0.07097065505309637,"18":0.05694461393843905,"19":-0.2706556422024737}},{"sx":1,"sy":1,"depth":20,"w":{"0":0.22750219102831812,"1":0.24063769454464673,"2":0.22680161408293434,"3":-0.06011102210393186,"4":-0.5979522692570758,"5":-0.21303310362843336,"6":-0.004969428433652736,"7":0.4272288872177687,"8":-0.03389105659278278,"9":0.1329493247951546,"10":-0.3179965140715435,"11":-0.45143249562009297,"12":-0.24936008108549187,"13":-0.3135340006561395,"14":-0.15818291528997283,"15":0.14549972933454935,"16":-0.23282177751970343,"17":0.43223928879174633,"18":0.10310818961041601,"19":0.4126049595145369}},{"sx":1,"sy":1,"depth":20,"w":{"0":-0.3400777005429431,"1":-0.3362195901264194,"2":0.3305010975151387,"3":-0.403585763500212,"4":0.17550220594651045,"5":0.22420299651414644,"6":-0.09346256841199517,"7":-0.030382191974639254,"8":-0.2275630528171472,"9":-0.09648590700289149,"10":-0.16690151003334466,"11":0.07990135768432384,"12":-0.04354938799541329,"13":-0.06319363406025524,"14":-0.10718781096526384,"15":0.47178641453558684,"16":-0.056031971094949284,"17":0.21244865985184042,"18":0.3023170603776906,"19":0.02972259612407995}}],"biases":{"sx":1,"sy":1,"depth":20,"w":{"0":0.09558106874867765,"1":0.1044693106058462,"2":0.1,"3":0.10446205037248603,"4":0.095531242019125,"5":0.10446358196684376,"6":0.09553143795613574,"7":0.09553171649175818,"8":0.1,"9":0.10371059248633274,"10":0.10437415286553513,"11":0.1,"12":0.1044635933451815,"13":0.1,"14":0.1,"15":0.1044709020275755,"16":0.09555157172136039,"17":0.10442356205441744,"18":0.1,"19":0.10443680139786532}}},{"out_depth":20,"out_sx":1,"out_sy":1,"layer_type":"relu"},{"out_depth":10,"out_sx":1,"out_sy":1,"layer_type":"fc","num_inputs":20,"l1_decay_mul":0,"l2_decay_mul":1,"filters":[{"sx":1,"sy":1,"depth":20,"w":{"0":0.030709442418379893,"1":-0.19793547510593404,"2":0.004394242195027289,"3":-0.09275044928358192,"4":0.4484154122539789,"5":0.045823447802005667,"6":0.42614470050064657,"7":0.025319372083757844,"8":-0.18012437436184603,"9":0.07867007478973978,"10":-0.25977979996906686,"11":0.26028951362972413,"12":-0.2854778228137285,"13":-0.10395784628505789,"14":0.1325508269517498,"15":-0.2517611883718856,"16":-0.046819753566747745,"17":-0.07148304065402425,"18":-0.33603919262125787,"19":0.2092255727140783}},{"sx":1,"sy":1,"depth":20,"w":{"0":-0.10403683366562105,"1":-0.11761655817995385,"2":-0.06192915613469684,"3":-0.4411355430362207,"4":0.20225451832207753,"5":-0.3643554412930457,"6":-0.07896991229909074,"7":0.5653131158212775,"8":-0.031029120119864487,"9":-0.1452488849304569,"10":-0.3803117743056476,"11":0.22493047507194253,"12":-0.028846181039217916,"13":-0.14331207181877936,"14":0.39839713672944127,"15":-0.32596838273342976,"16":0.08400738093237056,"17":-0.1556780714118068,"18":-0.19738757316644437,"19":0.14501996357285127}},{"sx":1,"sy":1,"depth":20,"w":{"0":-0.21422561092545983,"1":-0.10801360689559698,"2":0.08830324846139678,"3":-0.5345618403958374,"4":-0.06759593670515542,"5":-0.05319095515214273,"6":-0.13113189657482935,"7":0.20024982703044608,"8":-0.13099644099374633,"9":0.2667096296241861,"10":-0.1421123342152881,"11":-0.3413061758181197,"12":-0.05532428535242989,"13":-0.08582641199951853,"14":0.4418453390755789,"15":-0.07750612091493111,"16":0.2781723179083016,"17":0.23344008942600203,"18":-0.09630367825198284,"19":-0.004028762810069442}},{"sx":1,"sy":1,"depth":20,"w":{"0":0.4077788048339169,"1":-0.2921027136258874,"2":0.3622688179995266,"3":-0.1907525039503773,"4":-0.19811107130428304,"5":0.08668041161096873,"6":-0.03394184288050047,"7":0.491911982789103,"8":-0.06344537789482603,"9":0.2355013504441686,"10":-0.15118317080673263,"11":-0.10578347388773925,"12":-0.21343959101662036,"13":0.10865044161196326,"14":-0.13912684319592564,"15":0.05160691649546374,"16":0.08033204158531179,"17":0.11762881204766275,"18":-0.40519287221475037,"19":-0.3309000774103314}},{"sx":1,"sy":1,"depth":20,"w":{"0":-0.0014746144755481616,"1":-0.036438027974194424,"2":0.5706630566018064,"3":-0.1090912096134936,"4":0.21808115229128813,"5":-0.1359615116550156,"6":-0.167269643882223,"7":-0.006517942687313177,"8":0.081252647531555,"9":-0.003648654044896272,"10":0.30729761355619006,"11":0.22598347857599266,"12":0.08591779217849502,"13":-0.16867368094714066,"14":0.04614866662756612,"15":-0.11488559188015493,"16":-0.07763951952447937,"17":0.09110992874379473,"18":0.0012212170553495608,"19":0.3373832969757149}},{"sx":1,"sy":1,"depth":20,"w":{"0":-0.03410254225976581,"1":-0.0010443670663670118,"2":0.21506198050701938,"3":0.23493578073089316,"4":-0.27730310431077576,"5":0.13814620673675346,"6":0.31588148919007736,"7":-0.08403117190583534,"8":0.10228147350175675,"9":-0.07719214033449524,"10":-0.061224899287904914,"11":0.036280601474775985,"12":-0.019017016320274548,"13":0.42175770932330137,"14":-0.3289175425620127,"15":-0.2346761634089543,"16":-0.01287487029965631,"17":-0.14876352215910754,"18":-0.19895553575976332,"19":-0.40922601357626204}},{"sx":1,"sy":1,"depth":20,"w":{"0":-0.15224813700292625,"1":-0.11497456608425209,"2":0.429492682288447,"3":0.23070738340653396,"4":0.4078672904524641,"5":-0.13442390442616683,"6":0.15425805340874563,"7":-0.20459144988922984,"8":0.36268799855885253,"9":-0.42550177094143793,"10":0.07170580187623128,"11":-0.16740914344211424,"12":0.0768246327804444,"13":-0.12244115890721476,"14":0.05896811499442286,"15":-0.2715127470155193,"16":0.18397840658263068,"17":0.11424211453315909,"18":0.05023374119621341,"19":-0.09792175807229063}},{"sx":1,"sy":1,"depth":20,"w":{"0":0.32975535103149717,"1":-0.26572126022745146,"2":0.08361694559606389,"3":-0.20229290110412337,"4":-0.20823570104287167,"5":-0.058968156036889104,"6":-0.5601310323577748,"7":0.24413323588612604,"8":-0.009742258603199744,"9":-0.09312414135270639,"10":-0.05677497799070111,"11":-0.28174096053763903,"12":-0.03234349834108728,"13":0.4751053894478571,"14":-0.04250487760860845,"15":-0.21878286504964398,"16":-0.1955368027141562,"17":-0.328796645330661,"18":0.11109598007616822,"19":0.1923638570214899}},{"sx":1,"sy":1,"depth":20,"w":{"0":-0.11938367800945966,"1":-0.11429131867830954,"2":0.02804023445417771,"3":0.49235892961368566,"4":-0.28131128053017385,"5":-0.31095750926120014,"6":-0.22909750638612328,"7":0.17983750462299705,"8":0.36972660760030995,"9":-0.5563225356958457,"10":0.14752779173993674,"11":0.28238233846074967,"12":-0.21344844904259774,"13":-0.030778768938976058,"14":0.24347914565626774,"15":-0.15885802631293303,"16":0.04186744328552322,"17":-0.06420876660723962,"18":-0.1108131583740313,"19":-0.1569037098294373}},{"sx":1,"sy":1,"depth":20,"w":{"0":0.11815785693220819,"1":-0.08334118392557419,"2":-0.1704139691407211,"3":-0.15219671731187406,"4":0.16047581590009746,"5":-0.3142286691632294,"6":0.39092685654785153,"7":0.13391243054547197,"8":0.5817751383052994,"9":0.1683419168607367,"10":0.20422255222738991,"11":-0.13911757026312116,"12":0.00479737469475027,"13":-0.5704473916711869,"14":0.009242766600698685,"15":-0.35522407588823185,"16":0.03515668080059611,"17":-0.35611694198860633,"18":-0.04710423209634026,"19":-0.29798477513563876}}],"biases":{"sx":1,"sy":1,"depth":10,"w":{"0":-0.004470875182846498,"1":-0.004451996579925513,"2":-0.004466714018185286,"3":-0.004468581978276712,"4":-0.004469493614861265,"5":-0.004468392430366842,"6":-0.004469010425474155,"7":-0.004438422935123424,"8":-0.0044526920064826515,"9":-0.004468983880345165}}},{"out_depth":10,"out_sx":1,"out_sy":1,"layer_type":"softmax","num_inputs":10}]}