{"layers":[{"out_depth":2,"out_sx":1,"out_sy":1,"layer_type":"input"},{"out_depth":20,"out_sx":1,"out_sy":1,"layer_type":"fc","num_inputs":2,"l1_decay_mul":0,"l2_decay_mul":1,"filters":[{"sx":1,"sy":1,"depth":2,"w":{"0":0.0719687090537282,"1":0.36304936702617635}},{"sx":1,"sy":1,"depth":2,"w":{"0":0.14997901004677633,"1":0.6929822082873428}},{"sx":1,"sy":1,"depth":2,"w":{"0":0.49423313872468255,"1":0.04235303087581094}},{"sx":1,"sy":1,"depth":2,"w":{"0":0.2844530356903081,"1":0.3025537655606428}},{"sx":1,"sy":1,"depth":2,"w":{"0":-0.08736781257938844,"1":-0.1141092142419589}},{"sx":1,"sy":1,"depth":2,"w":{"0":0.6759134028556003,"1":-0.7100432656121005}},{"sx":1,"sy":1,"depth":2,"w":{"0":0.261492994644613,"1":0.14731603537984603}},{"sx":1,"sy":1,"depth":2,"w":{"0":-0.04550211689631163,"1":-0.4032759753304766}},{"sx":1,"sy":1,"depth":2,"w":{"0":0.9680806642628882,"1":-0.47319466455235204}},{"sx":1,"sy":1,"depth":2,"w":{"0":2.33802607856053,"1":-0.2547867598675491}},{"sx":1,"sy":1,"depth":2,"w":{"0":1.7537462400072028,"1":1.5048189144843325}},{"sx":1,"sy":1,"depth":2,"w":{"0":0.09462240302657579,"1":0.1253095630386899}},{"sx":1,"sy":1,"depth":2,"w":{"0":0.01187999526217603,"1":-0.9398192353647536}},{"sx":1,"sy":1,"depth":2,"w":{"0":-0.17527129568412447,"1":-0.32908659748371516}},{"sx":1,"sy":1,"depth":2,"w":{"0":-0.7050524097079574,"1":1.2641718546713305}},{"sx":1,"sy":1,"depth":2,"w":{"0":-0.22210626304266862,"1":-0.19687330804023442}},{"sx":1,"sy":1,"depth":2,"w":{"0":0.18661961572111177,"1":0.380007887305473}},{"sx":1,"sy":1,"depth":2,"w":{"0":-0.6467760074927716,"1":0.7134043248796036}},{"sx":1,"sy":1,"depth":2,"w":{"0":1.0159059577596448,"1":-0.2739543149278216}},{"sx":1,"sy":1,"depth":2,"w":{"0":-0.14991162467781124,"1":-0.10886169567788569}}],"biases":{"sx":1,"sy":1,"depth":20,"w":{"0":0.08070216809283025,"1":0.09640232965865378,"2":0.12519403535807075,"3":0.11830380969090314,"4":0.11681448245300696,"5":0.11937812528627174,"6":0.09557829674618543,"7":0.10750879599333724,"8":0.09590140657572378,"9":0.12169948104374673,"10":0.07789375470263155,"11":0.1260535736399408,"12":0.10285678547597979,"13":0.11850273869763024,"14":0.08760576973073206,"15":0.08430337930681103,"16":0.1259057555168759,"17":0.08786425461336397,"18":0.12068706625081241,"19":0.10270201162061414}}},{"out_depth":20,"out_sx":1,"out_sy":1,"layer_type":"relu"},{"out_depth":20,"out_sx":1,"out_sy":1,"layer_type":"fc","num_inputs":20,"l1_decay_mul":0,"l2_decay_mul":1,"filters":[{"sx":1,"sy":1,"depth":20,"w":{"0":-0.6951360943920382,"1":-0.0004425279878684537,"2":-0.20215915259228098,"3":0.29924727464954604,"4":-0.0163138853984187,"5":0.12716205184412047,"6":0.09600884521107184,"7":0.09397918022313809,"8":0.5115559867088516,"9":-0.5183098927948813,"10":0.13884205142460865,"11":-0.32193775833801247,"12":0.02838224487568309,"13":0.16536034237088013,"14":0.05250436560255684,"15":0.16957267168118292,"16":0.4287068459136806,"17":-0.24190210276249055,"18":-0.1888402783664678,"19":-0.16994845752677498}},{"sx":1,"sy":1,"depth":20,"w":{"0":-0.2222443030031809,"1":-0.24234133976819452,"2":0.20879960710095238,"3":0.026023752374463086,"4":-0.23214012913564058,"5":-0.20171905885827324,"6":0.35725571560048736,"7":-0.3197814772594705,"8":0.12552837883485235,"9":-0.028060537304443495,"10":-0.08208402330658321,"11":0.14311429089083824,"12":0.01358855995123005,"13":0.2641304053935305,"14":0.21455977083570293,"15":-0.0645551348981238,"16":0.3843511025146638,"17":0.5519597374541335,"18":0.296412076245463,"19":-0.09447671736996507}},{"sx":1,"sy":1,"depth":20,"w":{"0":0.004402471370873363,"1":0.04435495083915696,"2":0.01711492966330208,"3":-0.05660574460084833,"4":-0.06308348813312539,"5":-0.02111153432077794,"6":-0.039710216972533754,"7":0.11332327009350965,"8":0.24118085839763664,"9":-0.5397646994150147,"10":0.12489338280391095,"11":-0.4501526974462539,"12":0.04872358334152372,"13":0.20569116490863196,"14":-0.12406176482904933,"15":0.03471575558925393,"16":-0.08027475641453383,"17":-0.1048254533369421,"18":-0.08858583504318629,"19":0.0823943035270045}},{"sx":1,"sy":1,"depth":20,"w":{"0":0.18355531990368334,"1":0.08937939960055623,"2":-0.2829977207966932,"3":0.03772206477676833,"4":-0.2627015810055836,"5":0.15960462231284622,"6":0.0578667951685584,"7":0.41744545903989827,"8":-0.3769913057666913,"9":0.28120754099486184,"10":-0.29186596888268584,"11":-0.07398780704779204,"12":0.19586087261309232,"13":-0.046235458203904456,"14":-0.6835514705145966,"15":0.10632072830464724,"16":0.4066607868943973,"17":0.09444364927151731,"18":-0.23636821034436864,"19":0.34538150849569504}},{"sx":1,"sy":1,"depth":20,"w":{"0":0.15370438452066199,"1":-0.011724302131690269,"2":-0.15051902930148348,"3":0.1942211409736334,"4":-0.43195130213033434,"5":0.5611115747303279,"6":0.07923972488388621,"7":-0.08015616041192994,"8":-0.15703026100537787,"9":0.013977867027882703,"10":-0.14392995394440075,"11":-0.16914042991769832,"12":0.30574360123358735,"13":-0.11813629278114765,"14":0.11160623878480644,"15":0.1123255302995808,"16":0.24640013355227597,"17":0.011270937823965073,"18":-0.36301268349218363,"19":0.01598505226417049}},{"sx":1,"sy":1,"depth":20,"w":{"0":0.25066062049575255,"1":-0.06402661269867353,"2":0.26180014574329363,"3":-0.1527138418112204,"4":0.21209026090732583,"5":0.1695811223148604,"6":0.2888359341346609,"7":0.22375976781562693,"8":0.2838480088906423,"9":0.18216246796484808,"10":-0.2963132013366075,"11":-0.06692124328608486,"12":0.005297325204807865,"13":0.10364051755713764,"14":0.1957006182412414,"15":-0.17676844563572214,"16":0.02551887816259715,"17":-0.08568764427823909,"18":-0.5043437491678622,"19":0.04394701721151025}},{"sx":1,"sy":1,"depth":20,"w":{"0":-0.10394190872784828,"1":0.20722347850162545,"2":-0.06179644586622979,"3":0.4468210085466097,"4":0.02542450065711959,"5":-0.2361618118502563,"6":0.13209218260893288,"7":0.2927685600530384,"8":-0.19895259092033563,"9":0.33322466329733735,"10":-0.028997310031861713,"11":-0.41497265324700794,"12":0.3057132660847262,"13":0.20139609134737999,"14":-0.2848610087514359,"15":0.4341779054120794,"16":0.20414684502442015,"17":0.17950709037535023,"18":0.25890425211046286,"19":-0.17871136251339098}},{"sx":1,"sy":1,"depth":20,"w":{"0":0.2922805231506454,"1":-0.0067610535276688205,"2":-0.02601503457942659,"3":0.05126993276001361,"4":-0.2626294775083503,"5":-0.0964168269312581,"6":0.009425712020302231,"7":-0.10655214834961536,"8":0.5320847558768466,"9":-0.13310489307722267,"10":-0.030377643143888782,"11":0.14415829197615007,"12":-0.21679878709966127,"13":-0.05324272546693626,"14":0.21293311613765362,"15":0.11704019612432036,"16":0.04840693686195295,"17":0.425604650083819,"18":0.02469645658397218,"19":-0.06866692983356291}},{"sx":1,"sy":1,"depth":20,"w":{"0":-0.2759248149655405,"1":-0.20717723342931899,"2":0.12869167739996992,"3":-0.27212854807357423,"4":-0.16423885578954717,"5":-0.1111923460234464,"6":0.11079801586946633,"7":0.03386300392368307,"8":-0.09384384753811309,"9":0.23308555832388522,"10":0.000669315102735596,"11":0.3696359043104351,"12":-0.3495372201741724,"13":-0.03747690226653311,"14":-0.009265915781639789,"15":0.19701096450218436,"16":0.1767547352757204,"17":0.12431546875038516,"18":-0.03653730816975807,"19":-0.140340801370069}},{"sx":1,"sy":1,"depth":20,"w":{"0":-0.23746774942193283,"1":-0.18685340068694362,"2":0.37769575148763124,"3":-0.1359197066451077,"4":0.06319245606538257,"5":-0.06986337863202804,"6":0.04852455696721255,"7":0.2674649846309754,"8":0.34969034409471095,"9":0.17509002217587674,"10":0.11754633942080785,"11":-0.019667011458686233,"12":-0.2720445087108327,"13":0.21084676128482233,"14":0.09912911484142677,"15":0.08890644158611884,"16":0.27186755979618293,"17":-0.22343432975524904,"18":0.042820428417041555,"19":-0.31138041302787356}},{"sx":1,"sy":1,"depth":20,"w":{"0":0.11395109253303629,"1":0.15490786277402135,"2":0.22793726790541316,"3":-0.15554792601637274,"4":0.07998062374985458,"5":0.19902461894215226,"6":0.20479955281559536,"7":-0.07052606911961284,"8":-0.07769392747396815,"9":0.08193290782884344,"10":0.13699089357922795,"11":-0.02828342301268993,"12":0.24706435463859283,"13":0.014256161711076562,"14":0.049721879543336664,"15":-0.3750357561678517,"16":-0.021036685368839764,"17":0.1802769434015428,"18":0.04863129571439401,"19":-0.34659358896486725}},{"sx":1,"sy":1,"depth":20,"w":{"0":0.24092976302878455,"1":0.1709536291416156,"2":-0.05424266572549975,"3":-0.04461207287105421,"4":-0.3344997560479576,"5":0.12315772973824465,"6":-0.12191912078375715,"7":-0.14495005906163844,"8":-0.08209821882190038,"9":-0.6014186775708203,"10":0.4773647632962594,"11":0.0701954448882068,"12":0.2978098840798213,"13":0.06922769237670481,"14":-0.17121919288855547,"15":-0.21424382930279584,"16":0.08034843284073233,"17":0.31012237693597716,"18":0.1281639817451648,"19":-0.10547316089576875}},{"sx":1,"sy":1,"depth":20,"w":{"0":0.006274245632711317,"1":0.35498658365080943,"2":-0.2916683319296053,"3":-0.13642039207599724,"4":0.01889883829306788,"5":0.2018573385022816,"6":-0.2775502935304699,"7":-0.13308509368214919,"8":0.1838725610852231,"9":0.14643040086241696,"10":-0.13192000134736617,"11":0.12338202213543352,"12":-0.34725266119606507,"13":-0.09934579657981453,"14":0.0071106003351538525,"15":-0.004514949813108784,"16":0.08903464394173166,"17":-0.3561839875421956,"18":0.190921130397526,"19":-0.29176196621248845}},{"sx":1,"sy":1,"depth":20,"w":{"0":0.11390273234410772,"1":-0.004234958529451579,"2":0.21255284653896725,"3":0.12093564741100105,"4":0.012686631777352807,"5":-0.0733315633646689,"6":0.018220442939280924,"7":0.33299372209055256,"8":0.023371976887067686,"9":-0.3853392660737444,"10":-0.0067568480344945715,"11":0.2216628320705059,"12":0.028868436472054542,"13":0.22379560866003917,"14":0.12641036331351846,"15":-0.10282750071628653,"16":0.018791623850447654,"17":0.07313393405420375,"18":-0.44015847380089623,"19":-0.10627563215753007}},{"sx":1,"sy":1,"depth":20,"w":{"0":0.072999863508099,"1":0.07763197885894613,"2":-0.02907044379233808,"3":0.06038801388270807,"4":0.1119878679567516,"5":-0.0789707133911708,"6":0.31118872603748565,"7":0.021329824999687226,"8":-0.09472228809326684,"9":-0.0823282210320178,"10":0.13532944308265665,"11":0.17725018385993271,"12":-0.2862511190614743,"13":0.3692922153241298,"14":0.025260411189936,"15":-0.2632095248280997,"16":-0.055759016973148966,"17":-0.029063694719197886,"18":0.1627358870198551,"19":-0.0068789049550751855}},{"sx":1,"sy":1,"depth":20,"w":{"0":-0.11678960476152142,"1":-0.05364420281761248,"2":0.3225462959777014,"3":0.2714373862507805,"4":0.07483390236057018,"5":0.02101959950474849,"6":-0.04786249894667696,"7":0.058541593315898324,"8":0.059517269832146454,"9":0.20546398609806898,"10":-0.20063160479944583,"11":0.29389994928731245,"12":0.04351461228528199,"13":0.2258245330877656,"14":-0.0749370477987751,"15":-0.06398787745373194,"16":0.13994369331746656,"17":-0.2190299267585122,"18":0.23871319522616413,"19":0.11894384534867851}},{"sx":1,"sy":1,"depth":20,"w":{"0":0.15964169784304286,"1":0.338691568778644,"2":0.07169954142896146,"3":-0.10795190239716239,"4":-0.09697876632232147,"5":0.08994831689422766,"6":0.002707850318302929,"7":-0.07799939406052711,"8":0.07653051007702191,"9":-0.13593369903750754,"10":-0.2264090153635021,"11":0.06663381185760699,"12":0.2889611405544858,"13":-0.1805255233138792,"14":0.25167904927078655,"15":0.035206754552645846,"16":0.1904902486977877,"17":0.3056435347187867,"18":-0.2708505146188577,"19":0.07839670371430381}},{"sx":1,"sy":1,"depth":20,"w":{"0":0.09076631476608049,"1":0.40337800797709966,"2":-0.05745409934498637,"3":0.00664176932987799,"4":0.040226517692893704,"5":0.18611128228744295,"6":0.009615135127325895,"7":0.2451468965786435,"8":0.27234970753995014,"9":0.07002990183526893,"10":0.22928247392272028,"11":0.1608208138944966,"12":-0.267775176872851,"13":-0.47852678472451476,"14":-0.08578037250469397,"15":0.1933775247322387,"16":0.028778146830397547,"17":0.07741483593468862,"18":0.07056795163136692,"19":-0.2614496026826308}},{"sx":1,"sy":1,"depth":20,"w":{"0":0.22636820636594926,"1":0.23943839336048386,"2":0.22567111376747817,"3":-0.05981109064245151,"4":-0.5949911318279664,"5":-0.21197109566875202,"6":-0.004944630949174203,"7":0.4251052957638681,"8":-0.03372194402894042,"9":0.132286156636407,"10":-0.3164131290676513,"11":-0.44918961400192425,"12":-0.24811742221341057,"13":-0.31197274177806583,"14":-0.1573940024981956,"15":0.14477401230194825,"16":-0.23166133802358055,"17":0.4300909897230544,"18":0.10259379548296613,"19":0.4105535210613414}},{"sx":1,"sy":1,"depth":20,"w":{"0":-0.3383848924930241,"1":-0.33454589348898617,"2":0.3295333472146678,"3":-0.40157885285575523,"4":0.1748560538010413,"5":0.2240497639847368,"6":-0.09299771377461749,"7":-0.03033680722018662,"8":-0.22738766520501047,"9":-0.09642926244114061,"10":-0.16606916495984597,"11":0.07950270345326077,"12":-0.04351890831482703,"13":-0.06306571650093853,"14":-0.10665307390087946,"15":0.47026451484397624,"16":-0.05575238974066391,"17":0.21138955982753083,"18":0.3020210681759062,"19":0.029600656472873226}}],"biases":{"sx":1,"sy":1,"depth":20,"w":{"0":0.09299356791804927,"1":0.12886160882905578,"2":0.1,"3":0.11464002180288062,"4":0.08750783922466523,"5":0.12039785319678202,"6":0.08670594439183203,"7":0.0705001641616656,"8":0.07850514127971792,"9":0.1175759475560802,"10":0.13154766809145244,"11":0.11552970227745478,"12":0.12298119871938097,"13":0.10444197717447498,"14":0.07959886013174386,"15":0.12760610128083005,"16":0.09097523179496317,"17":0.13108024354748452,"18":0.1,"19":0.10443680139786532}}},{"out_depth":20,"out_sx":1,"out_sy":1,"layer_type":"relu"},{"out_depth":10,"out_sx":1,"out_sy":1,"layer_type":"fc","num_inputs":20,"l1_decay_mul":0,"l2_decay_mul":1,"filters":[{"sx":1,"sy":1,"depth":20,"w":{"0":0.027664267402330984,"1":-0.2243465108169663,"2":0.00437231489159366,"3":-0.09357876956008879,"4":0.44702144285518236,"5":0.04407764206657575,"6":0.4175198405672866,"7":0.005711912959399256,"8":-0.1938480598954384,"9":0.06631109574017956,"10":-0.27260828637562434,"11":0.24869986152280038,"12":-0.2981172581120295,"13":-0.10802699543304427,"14":0.11848667012358612,"15":-0.25835068694084956,"16":-0.0516588295691846,"17":-0.08989619377535282,"18":-0.3343663896732601,"19":0.20912814180896433}},{"sx":1,"sy":1,"depth":20,"w":{"0":-0.10740447329700856,"1":-0.14033032212955732,"2":-0.06162015432995738,"3":-0.44309679555855314,"4":0.1975842082998308,"5":-0.369572716059076,"6":-0.09544612350289879,"7":0.5450358332724425,"8":-0.04519177144216977,"9":-0.16370226440095653,"10":-0.4012409168797644,"11":0.2130020780079982,"12":-0.04965061830599194,"13":-0.14727376668926634,"14":0.3833688138610063,"15":-0.3416739435352237,"16":0.07819871366689725,"17":-0.17678516075407058,"18":-0.1964034260937951,"19":0.1447629661407822}},{"sx":1,"sy":1,"depth":20,"w":{"0":-0.21713457058119476,"1":-0.13051208300450193,"2":0.08786268771850672,"3":-0.5362190752231062,"4":-0.07035995736239722,"5":-0.05716021389552973,"6":-0.1469261882069444,"7":0.18100755516276124,"8":-0.14425867279739402,"9":0.2490656138241856,"10":-0.16078644376010276,"11":-0.352134000234492,"12":-0.0757193909559568,"13":-0.08995993833968394,"14":0.42833491764082127,"15":-0.09252930445061139,"16":0.2721451359638279,"17":0.21426590034848228,"18":-0.09582321708004754,"19":-0.004024899924641858}},{"sx":1,"sy":1,"depth":20,"w":{"0":0.4028777866582669,"1":-0.31726877356318883,"2":0.36046614830744705,"3":-0.19219913272912773,"4":-0.20020011548506275,"5":0.08357096554134812,"6":-0.047562980204540896,"7":0.47106827885893754,"8":-0.0775346544133295,"9":0.21868270240172974,"10":-0.16898040915632873,"11":-0.11728744036847794,"12":-0.23155133121849544,"13":0.1038894847498416,"14":-0.15352632256981918,"15":0.03998814061141901,"16":0.07475000064984252,"17":0.09750289392669546,"18":-0.4031780257311334,"19":-0.3306400838140594}},{"sx":1,"sy":1,"depth":20,"w":{"0":-0.005099447511727949,"1":-0.06208183714948995,"2":0.5678351412706757,"3":-0.11040729996882233,"4":0.21598378954822126,"5":-0.13867257735928595,"6":-0.18000526597277536,"7":-0.027035913724569663,"8":0.06736944347207588,"9":-0.019703385807201535,"10":0.290214427233112,"11":0.2143908498078454,"12":0.06868292831167247,"13":-0.1725562818806988,"14":0.03194686152288243,"15":-0.12549020111765224,"16":-0.08302283862652554,"17":0.07137023745637176,"18":0.001215123170231343,"19":0.3371574979616038}},{"sx":1,"sy":1,"depth":20,"w":{"0":-0.037243207817153255,"1":-0.02930460017987127,"2":0.21398987810868733,"3":0.23342266417003565,"4":-0.27911371885991,"5":0.13537478618050836,"6":0.3046291642671958,"7":-0.10674597315690071,"8":0.08656508051442098,"9":-0.09258825393688423,"10":-0.07760252092970887,"11":0.023924681268545567,"12":-0.03487112683066002,"13":0.41592552540087757,"14":-0.34529987183385374,"15":-0.2437803560813867,"16":-0.018227563767396024,"17":-0.17043279871116324,"18":-0.19796358420048782,"19":-0.40889548987541274}},{"sx":1,"sy":1,"depth":20,"w":{"0":-0.15500851012525416,"1":-0.14243431039182872,"2":0.42735792661697863,"3":0.22929578654470453,"4":0.4058573309664686,"5":-0.13692607956699435,"6":0.14305469845558946,"7":-0.22648630721900506,"8":0.3474895048454033,"9":-0.44065013359822947,"10":0.05559191731869068,"11":-0.179383427308884,"12":0.06106045048596748,"13":-0.1264356891696678,"14":0.04333937796640387,"15":-0.28053343221475346,"16":0.17842851285066794,"17":0.09336497783047641,"18":0.049983087830339896,"19":-0.09784992878047372}},{"sx":1,"sy":1,"depth":20,"w":{"0":0.3254103068636435,"1":-0.29083154084645657,"2":0.08319975848275019,"3":-0.2044518512533506,"4":-0.21186083189489924,"5":-0.06405997940458875,"6":-0.5752870687163874,"7":0.22056543510645765,"8":-0.027614058446044733,"9":-0.1128989084591877,"10":-0.07892909151782351,"11":-0.2937462863061931,"12":-0.04960562732412781,"13":0.4691051390959394,"14":-0.0622360187544976,"15":-0.23148864393749952,"16":-0.2003440827632007,"17":-0.3555053719360154,"18":0.11054175608580584,"19":0.19193779108432085}},{"sx":1,"sy":1,"depth":20,"w":{"0":-0.12262772974964466,"1":-0.13806917724121232,"2":0.02790031575284861,"3":0.4891456047027144,"4":-0.2854199375734116,"5":-0.31618383044700454,"6":-0.2456472048622867,"7":0.15889173486613775,"8":0.35463993701699964,"9":-0.5752783283674633,"10":0.125954274780925,"11":0.2701644379624938,"12":-0.23411969083575995,"13":-0.03509074122082632,"14":0.22768160741111454,"15":-0.1741318180504531,"16":0.0361584399726582,"17":-0.08641356271630223,"18":-0.1102603445542632,"19":-0.15662585876605808}},{"sx":1,"sy":1,"depth":20,"w":{"0":0.11463958857838533,"1":-0.10619563381752907,"2":-0.16956412877453464,"3":-0.15358456855876543,"4":0.15855168627302552,"5":-0.3169330711503423,"6":0.3772608170804797,"7":0.11522936192574314,"8":0.568460154262738,"9":0.15199118675602946,"10":0.1872220218451459,"11":-0.14960074308850632,"12":-0.01336738828304879,"13":-0.5730656685343841,"14":-0.0037849353380281477,"15":-0.36702393004495126,"16":0.02987808461327072,"17":-0.3747125945511608,"18":-0.04686919264218073,"19":-0.29776431630836786}}],"biases":{"sx":1,"sy":1,"depth":10,"w":{"0":-0.020335517443122376,"1":-0.0322944865243358,"2":-0.029720253214960298,"3":-0.027630702724625974,"4":-0.02648833373043226,"5":-0.02503770596697351,"6":-0.024743755853404426,"7":-0.030224344070463878,"8":-0.03252500206269964,"9":-0.026474088719453046}}},{"out_depth":10,"out_sx":1,"out_sy":1,"layer_type":"softmax","num_inputs":10}]}