{"layers":[{"out_depth":2,"out_sx":1,"out_sy":1,"layer_type":"input"},{"out_depth":20,"out_sx":1,"out_sy":1,"layer_type":"fc","num_inputs":2,"l1_decay_mul":0,"l2_decay_mul":1,"filters":[{"sx":1,"sy":1,"depth":2,"w":{"0":-1.0363340074587268,"1":0.1803719118969294}},{"sx":1,"sy":1,"depth":2,"w":{"0":-0.4059436731725507,"1":0.6791700333449269}},{"sx":1,"sy":1,"depth":2,"w":{"0":-0.8332380051101481,"1":1.1439935859599}},{"sx":1,"sy":1,"depth":2,"w":{"0":-0.5242137370044471,"1":-0.6124212112819241}},{"sx":1,"sy":1,"depth":2,"w":{"0":-1.0855682394284853,"1":0.5073715320810251}},{"sx":1,"sy":1,"depth":2,"w":{"0":0.18572027873819563,"1":-1.2199820231483323}},{"sx":1,"sy":1,"depth":2,"w":{"0":0.1473473676450491,"1":-0.07733951842840658}},{"sx":1,"sy":1,"depth":2,"w":{"0":-0.5665014953316925,"1":0.07847345745829029}},{"sx":1,"sy":1,"depth":2,"w":{"0":-0.36026500837607395,"1":0.2333630147485709}},{"sx":1,"sy":1,"depth":2,"w":{"0":0.07761694677788224,"1":0.15985207281857058}},{"sx":1,"sy":1,"depth":2,"w":{"0":0.24049233563710148,"1":-0.525122211421326}},{"sx":1,"sy":1,"depth":2,"w":{"0":-0.31382245772771,"1":0.05893436404462835}},{"sx":1,"sy":1,"depth":2,"w":{"0":-0.08794992064791533,"1":-0.2828985464218663}},{"sx":1,"sy":1,"depth":2,"w":{"0":0.13283507633476255,"1":0.2505656199594415}},{"sx":1,"sy":1,"depth":2,"w":{"0":1.1014688736069267,"1":-0.4210218338417645}},{"sx":1,"sy":1,"depth":2,"w":{"0":0.9610120095399611,"1":0.5590151297718383}},{"sx":1,"sy":1,"depth":2,"w":{"0":-0.41666089056991606,"1":0.8626217306536658}},{"sx":1,"sy":1,"depth":2,"w":{"0":-1.053629620702652,"1":0.14493144141231218}},{"sx":1,"sy":1,"depth":2,"w":{"0":0.7019518584518112,"1":0.8805654157750478}},{"sx":1,"sy":1,"depth":2,"w":{"0":-0.5824956158010718,"1":-0.1138815273258449}}],"biases":{"sx":1,"sy":1,"depth":20,"w":{"0":0.1,"1":0.1,"2":0.1,"3":0.1,"4":0.1,"5":0.1,"6":0.1,"7":0.1,"8":0.1,"9":0.1,"10":0.1,"11":0.1,"12":0.1,"13":0.1,"14":0.1,"15":0.1,"16":0.1,"17":0.1,"18":0.1,"19":0.1}}},{"out_depth":20,"out_sx":1,"out_sy":1,"layer_type":"relu"},{"out_depth":20,"out_sx":1,"out_sy":1,"layer_type":"fc","num_inputs":20,"l1_decay_mul":0,"l2_decay_mul":1,"filters":[{"sx":1,"sy":1,"depth":20,"w":{"0":-0.03579733020264691,"1":-0.04620829639016629,"2":0.05007056237441234,"3":-0.04768964977929788,"4":0.38636825991565993,"5":0.3540329283987093,"6":0.16364983408092046,"7":0.3012415476167213,"8":-0.30166803728099434,"9":0.03491416179531096,"10":0.3029248354039017,"11":-0.09001577411443566,"12":-0.19432106004599323,"13":0.046427503136117064,"14":-0.010601230644333524,"15":0.006522632464311383,"16":-0.22661656771479277,"17":0.07345094876005347,"18":0.08771565907316496,"19":-0.27149292600400177}},{"sx":1,"sy":1,"depth":20,"w":{"0":-0.2096219346566665,"1":-0.13788541827805129,"2":0.30076046144552404,"3":0.5742056583544181,"4":-0.2937992257859063,"5":-0.2591947708795595,"6":-0.16646006760947094,"7":0.354858068020796,"8":0.1584157896803853,"9":-0.0810760303881424,"10":-0.08473643724798728,"11":-0.047288772728394164,"12":0.011776819562990759,"13":-0.007123806342234822,"14":0.3456793816865576,"15":-0.19497779211575483,"16":-0.20544575346564573,"17":-0.1933331673811823,"18":-0.11404991047928037,"19":0.3821368681949269}},{"sx":1,"sy":1,"depth":20,"w":{"0":-0.38407379847919537,"1":-0.03135629609095838,"2":0.13572496795902808,"3":0.21705316917369852,"4":0.22551402026446596,"5":-0.04582829336860895,"6":0.1778440784335079,"7":-0.23784533681463363,"8":0.013255374250963394,"9":0.06561305485529999,"10":-0.3788873211848491,"11":0.03559398523360949,"12":0.06975060323507672,"13":0.07733952333109151,"14":-0.11423379679476332,"15":-0.14423992473954245,"16":0.2136757120771536,"17":0.44768880749841494,"18":0.3027741102881995,"19":0.2615203363237143}},{"sx":1,"sy":1,"depth":20,"w":{"0":-0.055986581700794236,"1":0.07807051864609814,"2":-0.010811138863506743,"3":-0.0006894481130274267,"4":-0.22598213697508185,"5":0.09444096676192418,"6":0.15972589599470627,"7":0.12563259196323823,"8":-0.05694251570365523,"9":-0.16976891224506724,"10":-0.02811044209084699,"11":0.20295122746393557,"12":0.11853064001130113,"13":-0.017442682370185328,"14":-0.24503925236535615,"15":-0.019052000319301116,"16":0.2712126577849478,"17":-0.14635713416745394,"18":-0.07927515942698758,"19":0.21275792790282436}},{"sx":1,"sy":1,"depth":20,"w":{"0":-0.018870788451600798,"1":-0.047933245673629964,"2":-0.43603932697812675,"3":-0.17682642237529972,"4":0.09557577722983271,"5":-0.06375429683313046,"6":0.004303726329259976,"7":0.012712031494013848,"8":-0.33583614872816975,"9":-0.06607739615305988,"10":0.7423513226816402,"11":-0.3169142029752667,"12":-0.6095033706382452,"13":0.09921680304185046,"14":0.007840384243657756,"15":-0.1503900961203391,"16":-0.20181922256782805,"17":0.4508582000710381,"18":0.24834036872274917,"19":0.15819432513753012}},{"sx":1,"sy":1,"depth":20,"w":{"0":0.41581454378360677,"1":-0.16876774160613736,"2":0.26553636612117304,"3":0.08061051267055074,"4":-0.004421924109066547,"5":0.15834685370286025,"6":-0.3904138814344653,"7":-0.12510639832694928,"8":-0.3793759819408644,"9":0.09442951963302576,"10":0.09710453891725733,"11":0.6851311578603694,"12":-0.0010672520865259896,"13":0.06025090353858235,"14":-0.32950254199695983,"15":0.17220810767948347,"16":-0.032236385635521336,"17":0.3584683506433276,"18":-0.21031539067324023,"19":0.3035438506767102}},{"sx":1,"sy":1,"depth":20,"w":{"0":-0.26916657461838617,"1":-0.12857358457653936,"2":-0.1707064128053852,"3":0.015373373618374018,"4":-0.03642606238101838,"5":-0.4910121066359658,"6":-0.014740977374310335,"7":0.09552979426086101,"8":0.26509820593577815,"9":0.34040027937290557,"10":0.020823679408798944,"11":0.10024755706168732,"12":0.288290328288334,"13":-0.40633304920841773,"14":0.15215834353622135,"15":0.30133046930123736,"16":0.14559619115222674,"17":-0.12531773705379512,"18":0.11693692168248952,"19":-0.23383710375140543}},{"sx":1,"sy":1,"depth":20,"w":{"0":0.05395823590650254,"1":0.5383102154101959,"2":0.20533799283972595,"3":0.1106256715951088,"4":-0.25180420222225675,"5":-0.03964305445088595,"6":0.2547047426298722,"7":-0.08998790635515527,"8":0.17843907221338173,"9":0.16522381296136518,"10":-0.3305702123190895,"11":0.08032111555709172,"12":-0.14276181348349404,"13":-0.041703493792891996,"14":-0.1743957974640034,"15":0.16676859492822177,"16":-0.015952682621953485,"17":-0.364260095788853,"18":-0.46156998077044004,"19":0.2359072761420527}},{"sx":1,"sy":1,"depth":20,"w":{"0":0.22079904951614324,"1":0.05795851230845103,"2":-0.23200089562427875,"3":-0.2207855746709202,"4":0.12521562061654912,"5":-0.10781021310228003,"6":-0.08065978631182429,"7":0.03692392837045746,"8":-0.002174587219651922,"9":-0.2843304104362083,"10":-0.043607322616800254,"11":0.09609382884340878,"12":0.14825951958667816,"13":-0.08736931444275146,"14":-0.09949523044363509,"15":0.5879179051210625,"16":0.47848421964752,"17":0.2656798946662593,"18":-0.030042452452240274,"19":-0.2159538392834823}},{"sx":1,"sy":1,"depth":20,"w":{"0":-0.11218204175793604,"1":-0.12112465304832282,"2":-0.02175505915957572,"3":0.020680156317054423,"4":0.019890177204474835,"5":-0.10455973091777851,"6":0.5703872093645412,"7":0.25531214370742084,"8":-0.3630909784982932,"9":-0.25787586220896147,"10":-0.008164396852576151,"11":-0.06119292486658787,"12":0.14579989062967263,"13":0.15139251882928081,"14":-0.14580036660612292,"15":0.4555324887494314,"16":-0.14124116953717178,"17":-0.4338020038145777,"18":0.09616675899498643,"19":0.321461083190397}},{"sx":1,"sy":1,"depth":20,"w":{"0":-0.2158759404493218,"1":-0.1052950982426543,"2":-0.06757649027811947,"3":0.21429377301712862,"4":-0.34027117149307223,"5":0.379391781382245,"6":-0.12774858865363875,"7":-0.1140024194449536,"8":0.13117771375828557,"9":-0.3569264839533686,"10":0.015707354666473092,"11":0.1278200113104246,"12":0.41556950549056276,"13":-0.3256385243108947,"14":0.11692246316405462,"15":0.06416511136720217,"16":-0.011331960713857447,"17":-0.05138721825762112,"18":-0.06255229708777152,"19":0.31969376564191854}},{"sx":1,"sy":1,"depth":20,"w":{"0":-0.4282785743860656,"1":-0.20982728383715593,"2":0.371818704767526,"3":-0.04138818998689337,"4":0.4108197640693264,"5":-0.4061879004330322,"6":0.5574326739583714,"7":-0.024470630026714638,"8":-0.18087604717469144,"9":-0.15056988701397203,"10":-0.20268898553679815,"11":0.19911596605724935,"12":0.2346785969032839,"13":0.09899938466750016,"14":0.010360659234425234,"15":-0.05226645480371799,"16":0.31388488997940983,"17":0.12698418308484724,"18":-0.32525904014486007,"19":0.011589773186550023}},{"sx":1,"sy":1,"depth":20,"w":{"0":0.013573468459974215,"1":0.19131851220922647,"2":0.17696491783653123,"3":-0.26442841549795415,"4":-0.23678850776238147,"5":-0.07738882104074216,"6":-0.4288404511660428,"7":0.0002134409737031223,"8":0.22346292669727824,"9":0.37462052466204576,"10":-0.002552254450993152,"11":-0.5703770976860313,"12":0.008998143467869145,"13":-0.32720117316210984,"14":-0.04141022149062569,"15":0.1719768450817241,"16":0.07221551872338,"17":-0.3695520704769266,"18":-0.20451187110241373,"19":0.03519225711638598}},{"sx":1,"sy":1,"depth":20,"w":{"0":-0.2829472665102468,"1":-0.04881401924548454,"2":-0.49984133537760744,"3":0.41975725427836846,"4":-0.22564555497379593,"5":0.11181965852872525,"6":-0.13493051180121646,"7":0.17667525294811676,"8":0.004906174767516061,"9":0.08966997049076274,"10":0.07381360590097247,"11":-0.18733728541197522,"12":0.00469189607303832,"13":0.23011366973824962,"14":0.03076461609232882,"15":0.05318840160695723,"16":0.22973304269372172,"17":-0.10148710884856992,"18":-0.1540145331002724,"19":0.0330861124341934}},{"sx":1,"sy":1,"depth":20,"w":{"0":0.06978683461355782,"1":0.2456360240410971,"2":-0.2340445719281035,"3":-0.4829644380530608,"4":0.04708845221588731,"5":0.027717875132494876,"6":0.5442637371810529,"7":-0.37802472718221436,"8":-0.020107863486632904,"9":0.09448764049818616,"10":0.22587610513946263,"11":0.029752310042603963,"12":0.26152684201481935,"13":-0.3264801804110018,"14":-0.2510358642614355,"15":-0.22355956707633723,"16":0.07363395376283094,"17":-0.2543058959810818,"18":0.3966662187683977,"19":-0.1352254349801496}},{"sx":1,"sy":1,"depth":20,"w":{"0":-0.10556042761547389,"1":-0.2443987367274406,"2":0.14230218322382934,"3":-0.037301147461156765,"4":0.10434465558408713,"5":0.17989593749439126,"6":-0.15286399496281186,"7":0.13267605968028626,"8":-0.03688018867032646,"9":-0.059068435271998204,"10":-0.17703734935124257,"11":0.2618324442886635,"12":-0.33875131729304253,"13":-0.2632785903600903,"14":0.35202012023138407,"15":-0.16803641272545308,"16":0.2644106916066146,"17":-0.24331222371210637,"18":0.19443285991564294,"19":0.21025390942326955}},{"sx":1,"sy":1,"depth":20,"w":{"0":0.11449173087218861,"1":0.29160586425649687,"2":-0.2980387518423411,"3":0.0130625071389143,"4":0.5220326107735402,"5":0.11813270635885911,"6":0.1954132722416624,"7":-0.04274938572583915,"8":0.09134723666270723,"9":-0.22210040958383007,"10":-0.09190757469851213,"11":0.41348554526651704,"12":-0.004021413615398364,"13":0.033721503320618545,"14":0.029789589693552727,"15":-0.08409555273394544,"16":0.05177275367568294,"17":-0.12498571438214817,"18":0.16641646307614175,"19":0.3406121125670267}},{"sx":1,"sy":1,"depth":20,"w":{"0":-0.0415809248286492,"1":-0.42559332955147133,"2":0.18568897543247637,"3":0.09872301654401464,"4":-0.1624008762372255,"5":-0.2032227315973347,"6":-0.47758959239581006,"7":-0.441572348534685,"8":0.026698358832724207,"9":-0.21861714297490958,"10":-0.14218572836657567,"11":0.0007599245898555669,"12":0.1354232467191215,"13":-0.12978463092847461,"14":0.1064285614206585,"15":-0.33752781318719915,"16":0.15168114975207256,"17":0.0007127257199865157,"18":0.03400756770476263,"19":0.09644833995942022}},{"sx":1,"sy":1,"depth":20,"w":{"0":0.09051763196866121,"1":-0.37870931446207967,"2":0.0866667215203361,"3":-0.3539922576667904,"4":-0.14729428343706735,"5":0.015739386051825593,"6":-0.14213212309586318,"7":0.03075734330338704,"8":0.0844719740921677,"9":-0.06608420191782692,"10":-0.24138849639296198,"11":0.168582029001032,"12":0.17709476888763903,"13":-0.11026396168759992,"14":-0.19486004508299037,"15":0.3064774636725051,"16":-0.0851356587771622,"17":-0.04340057400701247,"18":0.09478891796119873,"19":-0.008370665314802623}},{"sx":1,"sy":1,"depth":20,"w":{"0":-0.14337395742387962,"1":-0.3336394481621636,"2":-0.0697740228899767,"3":-0.2246500796976841,"4":-0.11028242447879351,"5":-0.052864624863356184,"6":0.1877850351422136,"7":-0.03159341966940548,"8":-0.2868664127697658,"9":-0.4091108688354521,"10":-0.014485324893643379,"11":0.1280316664260538,"12":0.09400268185549485,"13":-0.13006842183612807,"14":0.10777641836922283,"15":0.07514590332505662,"16":0.09634733675190611,"17":-0.11412421038311725,"18":0.24048534888574008,"19":0.19205784758584904}}],"biases":{"sx":1,"sy":1,"depth":20,"w":{"0":0.1,"1":0.1,"2":0.1,"3":0.1,"4":0.1,"5":0.1,"6":0.1,"7":0.1,"8":0.1,"9":0.1,"10":0.1,"11":0.1,"12":0.1,"13":0.1,"14":0.1,"15":0.1,"16":0.1,"17":0.1,"18":0.1,"19":0.1}}},{"out_depth":20,"out_sx":1,"out_sy":1,"layer_type":"relu"},{"out_depth":2,"out_sx":1,"out_sy":1,"layer_type":"fc","num_inputs":20,"l1_decay_mul":0,"l2_decay_mul":1,"filters":[{"sx":1,"sy":1,"depth":20,"w":{"0":0.11281824083653297,"1":-0.520002519292459,"2":0.11358598865965958,"3":0.09755520103229699,"4":-0.13203203649322404,"5":-0.10468197709760152,"6":-0.051827000583695,"7":-0.07875968359186032,"8":-0.10961389201188179,"9":-0.09820143946615638,"10":-0.03462867223267174,"11":0.016328089650643664,"12":-0.05269951077815404,"13":0.25386450899684415,"14":0.2029617825215685,"15":0.07747692343168115,"16":-0.14300781728597223,"17":0.15163389358186774,"18":-0.3446918226813487,"19":-0.12272997575301874}},{"sx":1,"sy":1,"depth":20,"w":{"0":0.06526428642536969,"1":-0.005539603736660538,"2":-0.0024398350114683757,"3":-0.4088449835086491,"4":0.12044877047596941,"5":-0.3005216629089398,"6":-0.3416655905090618,"7":0.024505038477624645,"8":-0.024621261201097713,"9":-0.22820667897764838,"10":-0.04716056584125868,"11":0.36189079445742944,"12":0.05646708523634015,"13":0.12878483275962713,"14":0.1403486034066544,"15":0.21301253417022867,"16":-0.08523927484124451,"17":-0.32978952284876173,"18":-0.14625177098455058,"19":-0.04920959063429089}}],"biases":{"sx":1,"sy":1,"depth":2,"w":{"0":0,"1":0}}},{"out_depth":2,"out_sx":1,"out_sy":1,"layer_type":"softmax","num_inputs":2}]}